{
  "layers": [
    5,
    5,
    5
  ],
  "params": {
    "weight0": [
      [
        0.016816548444776466,
        0.23342873031861797,
        0.2499045520845029,
        -0.7160337307800605,
        1.020506964086765
      ],
      [
        0.4791146574064629,
        -1.8496819926374248,
        0.4527118792632674,
        0.1511746327866496,
        2.313300650894033
      ],
      [
        -1.0225206421501543,
        3.272005830233711,
        -0.36768864622627156,
        0.3868936099753919,
        1.4586142420560442
      ],
      [
        1.6138968789173618,
        -0.4672640713378259,
        0.7430347935934375,
        -0.17350751469837333,
        3.1831088619540346
      ],
      [
        -0.6955289772088452,
        -0.02672809505790059,
        -1.6099176664947856,
        3.149504394611814,
        1.6266634743563881
      ]
    ],
    "weight1": [
      [
        0.6754607949387736,
        -0.5043728511622625,
        -1.5611490016725758,
        2.3798102133426107,
        1.6021258344344464
      ],
      [
        -0.6349190431580426,
        -1.5261041734117178,
        -1.5577118969393748,
        -1.2045935562187156,
        0.8292377565273654
      ],
      [
        -1.5668277701812041,
        0.01138856195572654,
        1.253348706144545,
        -0.7713983895672518,
        -0.9814301861949657
      ],
      [
        -0.3207092792548939,
        -0.7446179723051947,
        -0.1310223974235174,
        -0.5886835262731228,
        -0.9981403286555264
      ],
      [
        0.0823164161137627,
        0.8700693682513424,
        -1.653084540237094,
        0.8527533408196685,
        -2.809893021563325
      ]
    ]
  }
}