{
  "layers": [
    5,
    5,
    5
  ],
  "params": {
    "weight0": [
      [
        -0.22261298097426055,
        -3.2550213436352577,
        -0.23134231953602605,
        -0.2077091145175424,
        1.7987481511547754
      ],
      [
        -0.7467459333552339,
        1.359530372174043,
        -0.8265362081110454,
        0.5965186337381156,
        -0.5328866711071868
      ],
      [
        -0.5665743438507259,
        -0.8158189573345711,
        2.342657616606176,
        0.09337098229041675,
        -0.019873082608204615
      ],
      [
        0.1350542947909763,
        -0.7826085244747686,
        -0.2620211685247449,
        0.9836224100136438,
        3.118762915488988
      ],
      [
        0.17517462934387093,
        -0.17714721152824617,
        0.44987421640360437,
        -1.5569683565519619,
        0.022851040023113018
      ]
    ],
    "weight1": [
      [
        -0.40042744103382194,
        -0.5570498415558348,
        -1.506982051979941,
        -0.06880133436719499,
        -1.7139839890844208
      ],
      [
        -0.6174922393695197,
        0.21663133622940728,
        1.2287364025375702,
        -1.5916165759086347,
        0.529595567730105
      ],
      [
        -0.1776753073238204,
        -1.8207628076907172,
        -0.19759243430360185,
        0.9261800290002062,
        0.08562172047719604
      ],
      [
        0.05715308699443092,
        0.2241321765195938,
        0.5681832670369977,
        -0.7200296308446725,
        1.3365140103914968
      ],
      [
        0.07030002366546981,
        -0.744953677111364,
        0.061911926220907146,
        0.8713099913157039,
        0.11397528593384255
      ]
    ]
  }
}