{
  "layers": [
    5,
    5,
    5
  ],
  "params": {
    "weight0": [
      [
        -0.08527820380575711,
        0.36060147505022155,
        -0.004873125583536335,
        0.008859800220391342,
        -0.2885452119549048
      ],
      [
        0.555451390449667,
        -0.3712497458810276,
        0.03447907192209603,
        -0.15750659764123603,
        0.44338874238317544
      ],
      [
        -0.10597157350914439,
        0.18913840241106705,
        -0.21437935902334931,
        -0.6037659681254937,
        0.6999342995328024
      ],
      [
        -0.5260445578220084,
        0.0741879302698704,
        -0.4810104408679438,
        0.2961415834237957,
        -0.4182337895579552
      ],
      [
        -0.6200199830863481,
        0.43315348251449665,
        0.07036270239060644,
        -0.17239093090244084,
        0.30029893324869583
      ]
    ],
    "weight1": [
      [
        -0.4179693611139759,
        0.04257441789213746,
        0.11483144577491788,
        0.29330717265697764,
        -0.15609622792420705
      ],
      [
        0.5338374887930828,
        -0.1983539277477906,
        -0.41965761351390424,
        0.12741841702676757,
        0.006343161636740908
      ],
      [
        0.047309324384591206,
        -0.054551260419317786,
        0.12275814615200106,
        -0.27946279608906893,
        0.0029249054030845868
      ],
      [
        0.2635388780467214,
        0.41622639840246617,
        0.0968994084733795,
        -0.4435130801110261,
        0.01878664709023794
      ],
      [
        -0.350671802893996,
        0.08535326800052878,
        -0.2629688435673882,
        0.025687407855695194,
        -0.2123586056773588
      ]
    ]
  }
}