{
  "layers": [
    5,
    5,
    5
  ],
  "params": {
    "weight0": [
      [
        0.5841624885327487,
        -0.182288244809083,
        0.3273112546630476,
        -0.3043349128735956,
        0.43062514864811746
      ],
      [
        0.2940229567571983,
        0.05268247200853581,
        0.02693697828239997,
        0.07551830006471408,
        0.3829651758613005
      ],
      [
        -0.14461551374365197,
        0.15999439728343418,
        -0.03500361078675388,
        -0.7078022029017295,
        0.3034656795816222
      ],
      [
        0.18261624941675195,
        -0.04933993093370797,
        -0.3454825931572695,
        0.37339516800763,
        -0.7202191140289625
      ],
      [
        -0.13895444248887467,
        -0.04826101919338618,
        0.17824027196678643,
        -0.18389948848234047,
        0.11620071202543872
      ]
    ],
    "weight1": [
      [
        0.0031984458836704054,
        -0.21429870616764896,
        -0.10873312835107823,
        -0.06291065490823362,
        0.33703160932041776
      ],
      [
        -0.36836148510842714,
        0.2956770132271154,
        0.8256061579615654,
        -0.015075316038383944,
        0.0843408695231275
      ],
      [
        0.2882349818954033,
        0.7971654560224084,
        0.15609923454581348,
        1.080681021667174,
        0.005985846726359769
      ],
      [
        -0.6851600596982692,
        0.14848083539542992,
        -0.16918046331153996,
        0.5215592904301596,
        0.8231889533356971
      ],
      [
        -0.09412438460473485,
        -0.2529710139917165,
        -0.7198919984839443,
        0.34467346102458113,
        0.06400353778724223
      ]
    ]
  }
}