{
  "layers": [
    5,
    5,
    5
  ],
  "params": {
    "weight0": [
      [
        -0.8959791114353586,
        -0.7490248073576764,
        0.6339034559816794,
        -0.6184925171141598,
        0.7815601582022599
      ],
      [
        -0.45963866567075246,
        1.08896544727336,
        1.1361905844480649,
        1.5615178602447837,
        -0.3144519122370651
      ],
      [
        -0.298894425143804,
        -0.3917165664775942,
        1.0288396189273294,
        -0.2476299427787699,
        -0.38092803800028907
      ],
      [
        0.9718095454924391,
        0.41388471209979427,
        1.11012408272915,
        -0.3486419596979695,
        -1.736984364235033
      ],
      [
        0.5026896249563416,
        1.7485202774305777,
        0.8314306350596905,
        -0.20077888680330383,
        -0.18493372268062605
      ]
    ],
    "weight1": [
      [
        0.6838664352779736,
        -0.201588839276912,
        -0.6631555940118908,
        0.7511200663822192,
        -1.022004381887677
      ],
      [
        0.123990159484554,
        -0.3342735170267524,
        0.5002661018082729,
        -0.2136364851447519,
        -0.18743262428407662
      ],
      [
        0.19791871756377527,
        0.16999870166237044,
        -0.21150558872121136,
        0.5158047256816201,
        0.1902304772266091
      ],
      [
        0.7207876266235944,
        -0.19207554399517662,
        0.8483370649195933,
        -0.04151383862851661,
        0.5235965771937474
      ],
      [
        0.7232666610081852,
        0.9772970727567225,
        0.6099638555191601,
        0.04032358769934803,
        -0.14502467377451042
      ]
    ]
  }
}