{
  "layers": [
    5,
    5,
    5
  ],
  "params": {
    "weight0": [
      [
        -0.4493839800492907,
        -0.5160610626050325,
        -0.6189025013758012,
        -0.18818374230991453,
        0.7086723563716215
      ],
      [
        -0.7233295977116214,
        0.30502555457368197,
        0.7216874961904038,
        0.40023278284391606,
        -0.05459556331575355
      ],
      [
        0.48740124645306726,
        -0.6815072962969224,
        -0.6275114468057068,
        -0.1948410376795774,
        -0.017906928104681086
      ],
      [
        0.3447211681297395,
        -0.7187678242327287,
        -0.5930526838120598,
        -0.34575040604322893,
        -0.3643504005521364
      ],
      [
        -0.1235684753456735,
        -0.6393934488667609,
        -0.13185797542639222,
        0.5050729296716687,
        0.042851640524181445
      ]
    ],
    "weight1": [
      [
        0.275272285838728,
        -0.44516653806835793,
        -0.15676291130220854,
        0.7190967940833928,
        -0.31922142134187137
      ],
      [
        0.7001875567077906,
        -0.48515986346720325,
        -0.2521825402641552,
        0.3580470370516431,
        0.5186817949645
      ],
      [
        -0.30625767861971925,
        0.4625495459785389,
        -0.08839980131886283,
        0.16635590258841482,
        0.052037676807828226
      ],
      [
        0.17970365330548077,
        0.20343855607137173,
        0.3950142308198903,
        0.4792598352029869,
        -0.18803657982552602
      ],
      [
        -0.4514978203692867,
        0.7381159271254873,
        0.4769312812663611,
        -0.5051278168620263,
        -0.04431447907389707
      ]
    ]
  }
}